16 300
</s> 0.001129 -0.000896 0.000319 0.001534 0.001106 -0.001404 -0.000031 -0.000420 -0.000576 0.001076 -0.001022 -0.000618 -0.000755 0.001404 -0.001640 -0.000633 0.001633 -0.001007 -0.001266 0.000652 -0.000416 -0.001076 0.001526 -0.000275 0.000140 0.001572 0.001358 -0.000832 -0.001404 0.001579 0.000254 -0.000732 -0.000105 -0.001167 0.001579 0.000656 -0.000660 0.000003 0.001129 0.000427 -0.000370 -0.001152 0.001266 -0.000004 0.000265 -0.000402 0.000141 -0.000034 0.000759 -0.000519 -0.000071 0.000603 -0.000507 -0.001625 -0.000437 -0.000992 -0.001221 -0.000322 0.000069 -0.001167 -0.000511 0.001411 0.000336 -0.000475 -0.001373 0.000366 -0.001442 -0.000607 0.000801 0.001129 -0.000835 -0.001160 0.000916 0.000523 -0.000328 0.001595 -0.001579 -0.000357 0.000496 0.001015 -0.001099 -0.000166 -0.000142 -0.000261 0.001259 0.000039 0.000169 -0.001030 0.001610 0.000629 0.000418 -0.001350 0.000349 0.001144 -0.001205 -0.001183 0.000950 0.000061 0.000011 -0.000668 0.001244 0.000690 0.000056 -0.000862 -0.001167 0.001213 -0.000805 -0.000877 0.000228 -0.000397 -0.000858 0.000288 -0.001587 0.000484 -0.001122 0.000002 -0.000380 0.000706 -0.001587 0.001625 0.001556 -0.000431 0.000984 0.000904 -0.001396 0.001205 -0.000702 0.000271 -0.001236 0.000690 -0.000843 0.001343 -0.001434 -0.000671 0.001549 -0.001099 0.001190 -0.001427 -0.000683 -0.000786 0.000481 0.000408 -0.000637 0.000145 -0.000977 0.001450 0.000001 -0.001663 -0.000328 0.000629 -0.001434 -0.000341 0.001152 -0.000530 -0.000471 -0.000851 -0.001381 -0.001244 -0.001328 0.001076 0.001320 -0.000303 -0.000037 0.001183 -0.001358 -0.001045 0.000057 -0.001015 0.000433 -0.001572 -0.000091 0.001060 -0.000603 -0.001534 -0.001534 0.000542 0.001335 0.000412 -0.000311 0.000176 -0.000137 -0.000698 -0.000862 -0.001083 -0.000030 0.000801 0.000679 0.000336 -0.001389 0.001350 0.000235 -0.001335 -0.000874 -0.000744 0.001083 0.000061 -0.001266 0.001190 -0.000622 0.000000 0.001274 -0.000984 -0.001549 0.001556 -0.001312 -0.000793 0.001534 0.001297 -0.000180 0.000919 0.001205 0.000771 -0.001656 0.000771 0.001450 -0.001305 0.000610 0.000660 0.001259 0.001419 -0.001221 -0.001511 0.001129 0.001343 0.001663 -0.000572 -0.000557 0.000399 -0.000271 0.000496 0.001610 -0.000706 0.000626 -0.000977 -0.000190 0.000095 -0.000519 -0.000204 -0.000828 -0.000123 0.000763 0.000322 -0.001244 0.000992 0.001060 -0.001411 0.000097 -0.001556 0.000219 -0.000055 -0.000912 -0.001488 0.001366 -0.000843 -0.000420 0.000324 -0.001007 0.000126 -0.000456 0.000193 -0.000269 0.001495 -0.001587 0.000591 -0.001465 0.000965 -0.001282 0.001602 0.001091 -0.001312 0.001091 -0.000511 0.000345 0.001045 -0.000207 0.000904 0.000668 0.001106 -0.000874 -0.000376 -0.000257 -0.000092 0.001434 -0.001183 -0.000087 0.001328 -0.000158 0.001289 -0.000984 -0.000549 -0.001549 0.001373 -0.000061 -0.000824 0.001328 0.001160 0.000568 -0.001564 -0.000123 -0.000086
king 0.125977 0.029785 0.008606 0.139648 -0.025635 -0.036133 0.111816 -0.198242 0.051270 0.363281 -0.242188 -0.302734 -0.177734 -0.024902 -0.167969 -0.169922 0.034668 0.005219 0.046387 0.128906 0.136719 0.112793 0.059570 0.136719 0.101074 -0.176758 -0.251953 0.059814 0.341797 -0.031128 0.104492 0.061768 0.124512 0.400391 -0.322266 0.083984 0.039062 0.005859 0.070312 0.172852 0.138672 -0.231445 0.283203 0.142578 0.341797 -0.023926 -0.109863 0.033203 -0.054688 0.015320 -0.162109 0.158203 -0.259766 0.020142 -0.163086 0.001358 -0.144531 -0.056885 0.042969 -0.024658 0.185547 0.447266 0.009583 0.131836 0.098633 -0.185547 -0.100098 -0.133789 -0.125000 0.283203 0.123047 0.053223 -0.177734 0.085938 -0.021851 0.020508 -0.139648 0.025146 0.138672 -0.105469 0.138672 0.088867 -0.075195 -0.021362 0.172852 0.046387 -0.265625 0.008911 0.149414 0.037842 0.238281 -0.124512 -0.217773 -0.181641 0.029785 0.057129 -0.028931 0.012451 0.096680 -0.231445 0.058105 0.066895 0.070801 -0.308594 -0.214844 0.145508 -0.427734 -0.009399 0.154297 -0.076660 0.289062 0.277344 -0.000486 -0.136719 0.324219 -0.246094 -0.003036 -0.211914 0.125000 0.269531 0.204102 0.082520 -0.201172 -0.160156 -0.037842 -0.120117 0.115234 -0.041016 -0.039551 -0.089844 0.006348 0.203125 0.186523 0.273438 0.062988 0.141602 -0.098145 0.138672 0.182617 0.173828 0.173828 -0.237305 0.178711 0.063477 0.236328 -0.208984 0.087402 -0.166016 -0.079102 0.243164 -0.088867 0.126953 -0.216797 -0.173828 -0.359375 -0.082520 -0.064941 0.050781 0.135742 -0.074707 -0.164062 0.011536 0.445312 -0.215820 -0.111328 -0.192383 0.170898 -0.125000 0.002655 0.192383 -0.174805 0.139648 0.292969 0.113281 0.059570 -0.063965 0.099609 -0.027222 0.019653 0.042725 -0.246094 0.063965 -0.225586 -0.168945 0.002899 0.082031 0.341797 0.043213 0.132812 0.142578 0.076172 0.059814 -0.119141 0.002747 -0.062988 -0.027222 -0.004822 -0.082031 -0.024902 -0.400391 -0.106934 0.042480 0.077637 -0.116699 0.073730 -0.092285 0.107910 0.158203 0.042480 0.126953 0.036133 0.267578 -0.101074 -0.302734 -0.057617 0.050537 0.000526 -0.207031 -0.138672 -0.008972 -0.027832 -0.141602 0.207031 -0.158203 0.127930 0.149414 -0.022461 -0.084473 0.122559 0.215820 -0.213867 -0.312500 -0.373047 0.004089 0.107422 0.106934 0.073242 0.008972 -0.038818 -0.129883 0.149414 -0.214844 -0.001839 0.099121 0.157227 -0.114258 -0.205078 0.099121 0.369141 -0.197266 0.035400 0.109375 0.131836 0.166992 0.235352 0.104980 -0.496094 -0.164062 -0.156250 -0.052246 0.103027 0.243164 -0.188477 0.050781 -0.093750 -0.066895 0.022705 0.076172 0.289062 0.310547 -0.053711 0.228516 0.025146 0.067871 -0.121094 -0.215820 -0.273438 -0.030762 -0.337891 0.153320 0.233398 -0.208008 0.373047 0.082031 0.251953 -0.076172 -0.046631 -0.022339 0.029907 -0.059326 -0.004669 -0.244141 -0.209961 -0.287109 -0.045410 -0.177734 -0.279297 -0.085938 0.091309 0.251953
queen 0.005249 -0.143555 -0.069336 0.123535 0.131836 -0.088867 -0.071289 -0.216797 -0.197266 0.055664 -0.075684 -0.380859 0.104004 -0.000816 0.132812 0.112793 0.072754 -0.046875 0.065918 0.094238 0.190430 0.136719 -0.236328 -0.118652 0.065430 -0.053223 -0.308594 0.091797 0.188477 -0.166992 -0.156250 -0.130859 -0.082520 0.212891 -0.355469 -0.131836 0.096191 0.263672 -0.094727 0.183594 0.106934 -0.416016 0.269531 -0.027710 0.175781 -0.112793 -0.004120 0.145508 0.156250 0.267578 -0.017944 0.098633 0.052979 -0.031250 -0.163086 -0.058105 -0.343750 -0.172852 0.114258 -0.090332 0.134766 0.279297 -0.049805 0.129883 0.175781 -0.221680 -0.011902 0.140625 -0.181641 0.118652 0.161133 0.214844 -0.211914 0.126953 -0.100098 0.136719 0.126953 0.015320 0.104492 -0.027832 -0.060303 0.022217 0.181641 -0.067383 0.049072 0.154297 -0.250000 0.139648 0.294922 0.106445 0.335938 -0.222656 -0.125000 -0.052979 0.192383 0.068359 0.069824 -0.052002 0.144531 0.004486 -0.010132 -0.148438 0.217773 -0.195312 -0.390625 0.077637 -0.574219 -0.079102 -0.040527 -0.187500 0.253906 0.157227 0.125000 0.140625 0.201172 -0.058594 0.168945 -0.281250 0.171875 0.191406 0.121094 -0.150391 -0.006958 -0.237305 0.139648 -0.008362 -0.047119 0.146484 -0.056885 0.102051 0.084473 0.211914 -0.018311 0.503906 -0.048584 0.221680 -0.255859 0.034180 0.158203 -0.033691 0.067383 -0.251953 0.046143 -0.072754 0.079590 0.042236 -0.001289 0.202148 -0.130859 -0.060303 0.037842 0.135742 0.111816 -0.246094 -0.239258 -0.236328 -0.043213 -0.029053 0.235352 -0.003906 -0.050293 0.184570 0.503906 -0.006683 -0.034668 -0.075684 0.061523 -0.314453 -0.037598 0.236328 -0.127930 0.154297 0.296875 0.027100 -0.170898 -0.224609 0.002411 0.105957 -0.033203 0.014587 -0.215820 0.247070 -0.074219 -0.102051 0.168945 -0.050293 0.208008 -0.038574 -0.222656 0.275391 -0.059570 -0.017578 0.017944 0.088867 0.128906 0.182617 0.144531 0.104004 -0.132812 -0.326172 0.003860 -0.113770 -0.050537 -0.130859 0.022095 -0.146484 0.107422 0.230469 0.152344 0.227539 0.048340 0.067871 -0.067871 -0.257812 0.112305 0.003632 -0.120117 -0.212891 0.112305 0.121582 0.068359 0.049072 0.273438 -0.003021 -0.003784 0.001938 0.187500 -0.291016 0.090332 0.263672 -0.255859 -0.287109 -0.408203 0.105469 0.396484 -0.072754 -0.043213 -0.063477 -0.000603 -0.115234 0.314453 -0.222656 0.135742 -0.019653 0.153320 0.003601 -0.120117 0.064941 0.162109 -0.166992 0.032715 -0.003510 0.188477 0.193359 0.132812 0.067871 -0.341797 -0.083496 -0.294922 -0.020996 0.088867 0.324219 -0.369141 -0.085938 -0.049561 0.131836 0.044189 0.359375 0.214844 0.265625 -0.273438 0.235352 0.114258 0.087891 0.187500 -0.332031 0.151367 -0.036133 -0.119141 0.277344 0.108398 -0.072754 0.232422 0.002197 0.238281 -0.249023 -0.123535 -0.159180 -0.006012 0.145508 -0.004608 -0.225586 -0.378906 -0.376953 -0.082520 -0.041260 0.167969 -0.046875 0.163086 0.154297
man 0.326172 0.130859 0.034668 -0.083008 0.089844 -0.041260 -0.198242 0.006897 0.143555 0.001945 0.028809 -0.250000 -0.083984 -0.151367 -0.102051 0.040771 -0.097656 0.059326 0.029785 -0.100586 -0.130859 0.001297 0.026123 -0.271484 0.063965 -0.191406 -0.078125 0.259766 0.375000 -0.045410 0.162109 0.136719 -0.063965 -0.020630 -0.096680 0.253906 0.248047 -0.126953 0.071777 0.320312 0.031494 -0.038574 0.211914 -0.008118 0.222656 -0.134766 -0.076172 0.010498 -0.051758 0.038086 -0.133789 0.125000 0.055908 -0.182617 0.081543 -0.084473 -0.077637 -0.043457 0.081055 -0.010925 0.174805 0.306641 -0.043213 -0.014160 0.090820 -0.009277 -0.034424 -0.115234 0.124512 -0.024658 0.085449 0.143555 -0.277344 0.036621 -0.110352 0.130859 -0.017212 -0.080566 -0.007080 -0.029541 0.300781 -0.090332 0.031494 -0.186523 -0.111816 0.102539 -0.259766 -0.022095 0.167969 -0.053223 -0.145508 -0.010498 -0.030396 -0.038574 0.115234 -0.006256 -0.139648 0.080078 0.061035 -0.153320 -0.111328 -0.141602 0.198242 -0.069336 0.292969 -0.160156 0.208984 0.000418 0.018311 -0.202148 0.047607 0.058105 -0.012329 -0.019897 -0.003647 -0.013550 -0.082520 -0.031494 0.007172 0.201172 0.083008 -0.048096 -0.263672 -0.096680 -0.225586 -0.096680 0.064941 -0.025024 0.084961 0.031982 -0.075684 -0.253906 -0.116699 -0.014465 -0.160156 -0.007019 -0.057129 0.028076 -0.091797 0.251953 0.241211 0.066406 0.129883 0.170898 -0.136719 0.187500 -0.100098 -0.041992 -0.120117 0.005249 0.156250 -0.203125 -0.071289 -0.061035 0.016357 0.182617 0.035889 -0.042480 0.167969 -0.150391 -0.169922 0.018311 0.277344 -0.012695 -0.039062 -0.154297 0.184570 -0.079102 0.090332 -0.027100 0.082520 0.067383 -0.161133 -0.196289 -0.152344 -0.047119 0.047607 0.059082 -0.168945 -0.149414 0.129883 0.043213 0.026245 -0.179688 -0.196289 0.064453 0.089355 0.164062 -0.038086 -0.098145 -0.014832 0.187500 0.127930 0.227539 0.018188 -0.079590 -0.113770 -0.069336 -0.155273 -0.081055 -0.092773 -0.113281 -0.151367 -0.080078 -0.051270 -0.153320 0.116699 0.068359 0.032471 -0.339844 -0.081543 -0.083496 0.040039 0.049072 -0.241211 -0.134766 -0.059326 0.121582 -0.341797 0.165039 0.061768 -0.181641 0.201172 -0.077148 0.164062 0.004028 0.302734 -0.100098 -0.136719 -0.059570 0.062500 -0.212891 -0.065430 0.179688 -0.077637 -0.019287 -0.150391 -0.001060 0.034180 0.033447 0.193359 0.019653 -0.199219 -0.106445 0.015259 0.009277 0.014160 -0.023926 0.058838 0.023682 0.125000 0.047607 -0.055664 0.115723 0.147461 0.101562 -0.071289 -0.077148 -0.125977 0.029175 0.095215 -0.124023 -0.109375 -0.128906 0.163086 0.283203 -0.031494 0.123047 -0.232422 -0.093750 -0.129883 0.013550 -0.038818 -0.082520 0.008972 0.163086 0.105469 -0.138672 -0.165039 -0.038574 0.108398 -0.104980 0.063965 0.388672 -0.059814 -0.061279 -0.104492 -0.167969 0.071777 0.139648 0.155273 -0.031250 -0.202148 -0.129883 -0.100586 -0.063965 -0.083496 -0.302734 -0.080078 0.020996
woman 0.243164 -0.077148 -0.103027 -0.107422 0.118164 -0.107422 -0.114258 0.025635 0.111816 0.048584 -0.097168 -0.343750 -0.062988 -0.125000 -0.027100 0.094238 -0.187500 -0.053467 0.062500 -0.030518 -0.029053 -0.048096 -0.055176 -0.408203 0.010132 -0.232422 -0.170898 0.263672 0.349609 -0.211914 0.143555 -0.006226 -0.225586 -0.105469 -0.116211 0.123047 0.306641 -0.048828 -0.095703 0.199219 -0.157227 -0.028076 0.158203 -0.024292 0.129883 -0.089844 -0.076172 0.035400 -0.030640 0.152344 0.052490 0.001610 0.055664 0.039551 -0.077148 -0.071289 -0.092285 -0.070312 0.203125 0.015320 0.298828 0.175781 -0.045410 0.095215 0.041260 0.077637 0.094727 0.167969 0.201172 -0.072266 0.183594 0.215820 -0.238281 0.104980 -0.016602 0.240234 0.016724 -0.045654 0.168945 0.185547 0.247070 -0.102051 0.084961 -0.104004 -0.474609 0.263672 -0.157227 0.082520 0.219727 -0.030396 -0.255859 -0.197266 -0.092773 -0.012817 0.126953 0.035400 0.058838 0.032715 0.172852 -0.020874 -0.165039 -0.281250 0.084961 -0.169922 0.231445 -0.141602 0.079102 -0.192383 0.076172 -0.223633 -0.010681 0.056641 0.156250 0.071777 -0.156250 -0.144531 -0.083008 -0.121094 0.056396 0.261719 0.079590 -0.012878 -0.200195 -0.043945 -0.101562 0.129883 0.094238 0.019043 0.142578 0.159180 -0.074707 -0.324219 -0.207031 0.048096 -0.041992 0.092285 -0.043945 -0.220703 -0.062500 0.083984 0.229492 -0.111816 0.090332 0.208984 -0.228516 0.287109 -0.138672 0.185547 -0.210938 -0.205078 0.300781 -0.182617 0.123047 -0.161133 0.093750 0.125977 -0.081055 0.000092 0.153320 -0.081055 -0.193359 0.007080 0.384766 0.105957 -0.109375 -0.113770 0.091309 -0.192383 0.061279 0.006073 -0.045410 0.062500 -0.130859 -0.183594 -0.176758 -0.187500 0.244141 0.189453 -0.193359 -0.022949 0.025391 0.003937 -0.138672 -0.281250 -0.180664 0.086914 0.031738 0.255859 -0.230469 -0.052490 -0.002182 0.160156 0.157227 0.279297 0.137695 0.104492 -0.118652 -0.058105 -0.073242 0.010498 -0.177734 -0.107422 -0.176758 -0.123047 -0.169922 -0.134766 0.063965 0.122559 0.195312 -0.494141 -0.039062 -0.031982 -0.015869 -0.041016 -0.143555 -0.085938 -0.079590 0.246094 -0.177734 0.205078 0.053223 -0.025146 0.214844 0.021240 0.097656 -0.216797 0.285156 -0.119141 -0.166992 -0.003601 0.046143 -0.163086 -0.253906 0.189453 -0.075195 -0.053955 -0.177734 -0.043213 -0.007385 0.157227 0.253906 -0.152344 -0.052734 -0.125000 0.154297 0.111816 -0.015442 0.008972 -0.056396 -0.025879 0.193359 0.052246 -0.015625 -0.056885 0.117188 0.060059 -0.026489 -0.139648 -0.072754 -0.050049 0.029785 -0.096191 -0.160156 -0.141602 0.217773 0.255859 -0.045898 0.117188 -0.246094 -0.072754 -0.086914 0.157227 -0.188477 0.043945 -0.005554 0.069336 0.142578 -0.120605 -0.104004 -0.034180 0.182617 -0.129883 0.016357 0.320312 -0.112305 -0.011292 -0.138672 -0.220703 0.000759 0.394531 0.103516 -0.066406 -0.267578 -0.247070 -0.072754 0.107910 0.118652 -0.083008 0.065430 -0.029419
car 0.130859 0.008423 0.033447 -0.058838 0.040039 -0.142578 0.049316 -0.168945 0.208984 0.119629 0.180664 -0.250000 -0.104004 -0.107422 -0.018799 0.052002 -0.002167 0.064453 0.144531 -0.045410 0.161133 -0.016113 -0.030884 0.084473 0.162109 0.044678 -0.155273 0.253906 0.339844 0.007568 -0.255859 -0.017334 -0.032959 0.163086 -0.125977 -0.099121 0.165039 0.068848 -0.189453 0.028320 -0.053467 -0.030640 0.110840 0.241211 -0.234375 0.123535 -0.002945 0.148438 0.332031 0.052490 -0.200195 0.376953 0.122559 0.114258 -0.176758 0.100098 0.003036 0.267578 0.201172 0.037109 0.110840 -0.098145 -0.312500 0.035156 0.028320 0.261719 -0.086426 -0.022583 -0.058350 -0.007874 0.117676 -0.042969 -0.172852 0.043945 -0.230469 0.164062 -0.114746 -0.060303 0.011963 -0.247070 0.326172 -0.044922 -0.114258 0.228516 -0.016479 -0.150391 -0.131836 0.125977 -0.174805 0.022095 -0.101562 0.008179 0.107910 -0.246094 -0.109375 -0.093750 -0.016235 -0.202148 0.231445 -0.054443 -0.055420 -0.208984 0.267578 0.279297 0.170898 -0.175781 -0.027710 -0.204102 0.023926 0.031250 -0.253906 -0.125000 -0.054932 -0.173828 0.285156 -0.232422 0.023438 -0.201172 -0.134766 0.263672 0.007690 0.205078 -0.017090 -0.129883 0.047119 0.220703 0.020996 -0.291016 -0.028931 0.172852 0.042725 -0.198242 -0.040039 -0.169922 0.100586 -0.093262 0.158203 -0.165039 -0.060547 0.194336 -0.070801 -0.068848 -0.096191 -0.072266 0.048828 0.073242 0.110352 0.048584 -0.176758 -0.337891 0.225586 0.163086 0.051025 -0.082520 0.079590 0.087402 -0.168945 -0.021606 -0.192383 0.038574 -0.051025 0.219727 0.080078 -0.211914 -0.075195 -0.150391 0.304688 -0.170898 0.123535 -0.234375 -0.107422 -0.067871 0.019043 -0.141602 -0.227539 -0.163086 0.144531 -0.151367 -0.296875 0.223633 -0.102051 -0.045654 -0.216797 -0.090332 0.093750 -0.153320 -0.015503 0.304688 -0.237305 0.089355 0.037109 0.029419 -0.285156 0.158203 -0.003067 0.060547 0.004974 -0.152344 -0.008362 0.021973 -0.121094 -0.138672 -0.273438 -0.068359 0.082520 -0.263672 -0.169922 0.147461 0.084961 0.020752 0.136719 -0.049316 -0.010071 -0.003693 -0.108398 0.147461 -0.155273 0.161133 0.056152 -0.050049 -0.164062 -0.269531 0.414062 0.060791 -0.046875 -0.025146 0.105957 0.132812 -0.166992 -0.049072 0.046631 0.051514 -0.079590 -0.165039 -0.298828 0.060547 -0.153320 -0.005981 0.066406 -0.045166 0.243164 -0.070801 -0.369141 -0.231445 -0.119141 -0.083008 0.147461 -0.057617 0.235352 -0.123047 0.146484 0.136719 0.154297 0.021118 -0.095703 0.058594 0.039795 -0.081055 0.055908 -0.166016 0.271484 -0.201172 -0.009155 0.073242 0.104492 0.345703 -0.263672 0.020996 -0.400391 -0.034180 -0.159180 -0.087891 0.082031 0.233398 0.021362 -0.113281 0.052490 -0.104492 -0.023804 -0.083496 -0.040039 0.019165 -0.012268 -0.182617 -0.067871 -0.084961 -0.030396 -0.053955 0.042480 0.127930 -0.275391 0.285156 -0.047363 0.064941 -0.112305 -0.025757 -0.041260 0.228516 -0.149414 -0.150391
truck 0.132812 -0.019165 -0.126953 -0.017334 0.200195 -0.217773 -0.037109 -0.181641 0.239258 -0.046875 0.365234 -0.174805 0.035645 -0.109863 -0.032471 -0.065918 -0.245117 -0.062500 0.125000 -0.168945 -0.024902 -0.150391 -0.072754 0.173828 0.386719 -0.229492 -0.079590 0.246094 0.250000 -0.071777 -0.044678 -0.182617 -0.018555 0.129883 -0.009949 0.144531 0.283203 0.203125 -0.271484 -0.114258 -0.046143 0.076660 0.244141 0.031128 -0.439453 -0.049805 -0.247070 0.154297 0.195312 0.056152 -0.335938 0.223633 0.161133 0.103516 -0.267578 -0.018311 0.253906 0.363281 0.093262 -0.052246 0.160156 -0.024414 -0.375000 0.146484 -0.048096 0.079102 -0.040283 -0.097656 -0.120605 0.047363 0.030029 -0.022461 -0.195312 0.180664 -0.171875 0.055176 0.015320 -0.133789 0.125977 -0.292969 0.314453 0.089355 -0.104004 0.082520 -0.014465 -0.063965 -0.376953 0.055176 -0.093262 -0.002731 0.018677 0.220703 0.083984 0.041504 -0.040039 -0.061035 0.080078 -0.174805 0.349609 -0.106445 -0.259766 -0.129883 0.199219 0.082031 0.250000 -0.113281 0.107910 -0.198242 -0.062988 0.010681 -0.337891 -0.417969 -0.140625 -0.202148 0.214844 -0.201172 -0.005585 0.041260 -0.059570 0.191406 0.018066 0.010986 -0.180664 -0.231445 -0.001587 0.273438 -0.046875 -0.090820 -0.138672 -0.039307 -0.083008 -0.017944 -0.117676 -0.255859 0.188477 0.133789 0.087402 -0.310547 0.125977 0.292969 -0.119141 -0.166992 0.030151 -0.081055 -0.133789 0.081055 -0.112793 -0.007172 -0.022095 -0.171875 0.304688 0.033447 -0.067871 0.053223 -0.157227 0.144531 -0.250000 -0.005951 -0.310547 -0.091797 -0.188477 0.078613 -0.073242 -0.100586 0.178711 -0.130859 0.318359 -0.231445 0.154297 -0.273438 0.003693 -0.087402 -0.019775 0.089355 -0.198242 -0.225586 0.096191 -0.047852 -0.390625 0.143555 -0.213867 -0.097656 0.027344 0.026978 0.025146 -0.052979 0.026855 0.227539 -0.204102 0.349609 0.283203 0.051270 -0.175781 0.115234 0.079590 -0.011841 -0.046631 -0.246094 0.041016 -0.073730 0.085449 -0.206055 -0.140625 -0.142578 -0.117676 -0.062988 0.087891 0.180664 0.296875 0.155273 0.143555 -0.051758 -0.294922 0.247070 -0.159180 0.195312 -0.222656 0.116699 -0.229492 -0.057373 -0.204102 0.044678 0.373047 0.012695 0.180664 -0.213867 -0.182617 0.148438 -0.056396 -0.146484 0.067871 0.057373 -0.112793 -0.069336 -0.304688 -0.172852 0.055664 -0.079102 -0.082031 -0.034180 0.216797 -0.031006 -0.212891 -0.170898 -0.129883 -0.250000 0.189453 -0.031982 0.046387 -0.275391 0.119141 0.074707 -0.166016 -0.042969 -0.032715 -0.076172 -0.145508 -0.251953 0.005585 -0.269531 0.013611 -0.345703 -0.053955 0.007751 0.289062 0.086914 -0.275391 0.003769 -0.213867 0.183594 -0.007263 -0.184570 0.232422 0.036865 -0.079102 -0.030640 -0.042725 -0.031250 -0.022217 -0.031738 -0.251953 0.004761 0.192383 -0.043701 -0.049805 -0.158203 0.106934 -0.001968 0.143555 0.202148 -0.292969 -0.036133 0.047607 -0.102539 -0.098145 -0.116699 -0.213867 0.184570 -0.007233 -0.302734
canine 0.050293 0.039062 0.028320 0.228516 -0.273438 -0.026489 0.141602 -0.114746 -0.112305 -0.250000 0.433594 -0.335938 0.124023 0.037354 -0.018433 0.143555 0.056885 0.170898 -0.146484 -0.060547 0.135742 -0.219727 -0.076172 -0.104980 -0.287109 0.296875 -0.156250 0.443359 0.163086 -0.068848 -0.208984 -0.119629 -0.062256 -0.047119 -0.197266 0.066895 -0.042969 0.069336 0.125000 0.192383 0.116211 -0.086426 -0.285156 0.208008 -0.202148 0.003174 0.071289 0.046143 0.187500 0.275391 -0.052002 -0.054199 0.208008 0.178711 -0.024414 0.078613 0.001457 -0.250000 0.369141 0.107910 0.241211 0.328125 0.341797 0.115723 -0.006989 -0.247070 -0.031006 0.000317 -0.365234 -0.124023 0.333984 0.076172 -0.279297 0.246094 0.201172 0.006134 0.227539 -0.166992 0.148438 -0.333984 -0.013611 -0.207031 0.003387 -0.165039 -0.190430 -0.178711 -0.375000 0.137695 -0.314453 -0.059570 0.025757 -0.281250 0.118652 0.322266 0.062988 -0.001572 -0.032227 -0.141602 -0.160156 -0.251953 -0.020020 -0.197266 0.259766 0.222656 0.298828 -0.098633 -0.012634 -0.154297 0.322266 0.050781 -0.263672 0.128906 0.098145 0.265625 0.035889 0.234375 -0.161133 -0.320312 0.004852 -0.124023 -0.161133 -0.057861 -0.457031 -0.052002 0.185547 0.265625 -0.016479 -0.328125 0.212891 0.096191 -0.136719 0.019897 -0.365234 0.073242 -0.304688 -0.110840 0.129883 -0.171875 0.201172 0.216797 0.080078 -0.140625 -0.382812 -0.012329 0.163086 -0.036865 -0.068848 0.102051 -0.169922 -0.250000 0.257812 0.044434 -0.216797 0.032959 -0.292969 -0.199219 0.223633 -0.217773 -0.054199 -0.015320 -0.071777 -0.196289 0.067383 -0.161133 -0.025391 -0.209961 0.074219 -0.101562 0.054199 -0.018799 0.229492 -0.306641 0.033203 0.255859 -0.056396 0.014343 -0.111328 -0.078125 -0.535156 0.044189 0.316406 -0.000557 -0.106445 0.125000 -0.273438 -0.074707 0.343750 0.112305 0.204102 0.261719 0.060303 -0.143555 -0.096680 0.052979 0.034424 0.036133 0.070312 -0.165039 -0.171875 0.159180 -0.095215 -0.055420 -0.077148 0.016357 0.030762 -0.267578 -0.306641 0.075684 0.117188 0.019043 -0.488281 -0.324219 -0.275391 -0.062988 -0.012207 0.147461 0.482422 -0.222656 -0.353516 0.078125 0.007568 -0.106445 0.081543 -0.312500 -0.100098 0.075195 0.083496 -0.159180 0.394531 -0.219727 0.180664 0.095703 -0.181641 0.154297 0.054199 0.236328 0.156250 -0.015076 0.066406 0.163086 0.259766 -0.223633 0.028687 0.112793 -0.000656 0.285156 0.207031 0.035645 -0.078125 -0.158203 -0.255859 -0.004822 -0.021606 0.232422 -0.089355 0.298828 0.093750 -0.070312 -0.390625 0.171875 -0.093750 0.137695 -0.188477 0.076172 0.330078 -0.131836 -0.002121 -0.267578 -0.396484 0.184570 -0.096191 0.133789 -0.302734 0.146484 0.283203 -0.335938 0.068359 0.151367 0.172852 -0.083984 0.038818 -0.104004 0.114258 -0.058105 -0.111816 0.091309 -0.291016 -0.209961 0.347656 0.063477 -0.163086 0.069824 -0.158203 0.283203 0.330078 -0.016846 0.060791 0.182617 -0.061768 0.273438
feline 0.062012 0.273438 -0.237305 0.250000 -0.036133 0.253906 0.089844 0.036621 0.066406 -0.191406 0.057617 -0.277344 0.061279 -0.034668 -0.096680 -0.185547 0.149414 0.205078 -0.051270 0.098633 0.146484 -0.328125 0.110352 -0.141602 -0.162109 0.138672 -0.394531 0.535156 0.223633 -0.188477 -0.110352 -0.333984 -0.145508 -0.073730 -0.257812 0.117676 0.002640 0.031738 0.036377 0.203125 0.065430 -0.072266 -0.097168 0.322266 0.094238 -0.198242 0.148438 0.357422 0.361328 0.285156 -0.171875 -0.003616 0.193359 0.109863 -0.065430 0.043213 0.192383 -0.291016 0.175781 0.431641 0.156250 0.184570 0.145508 0.153320 0.157227 -0.047607 0.050049 0.118164 -0.232422 0.253906 0.298828 -0.088867 -0.206055 0.020752 -0.056641 0.131836 0.104980 -0.039551 0.153320 -0.015747 -0.065430 -0.051025 0.005280 -0.281250 -0.186523 0.039062 -0.404297 -0.042725 -0.140625 -0.152344 0.032227 -0.322266 -0.235352 -0.041748 -0.088379 -0.042969 -0.096191 -0.111328 -0.390625 -0.173828 -0.130859 -0.096191 0.222656 -0.019165 0.217773 -0.228516 -0.047607 -0.168945 0.003937 -0.100098 -0.165039 0.064941 0.213867 0.437500 -0.055176 0.015625 -0.186523 -0.159180 0.049561 -0.261719 -0.155273 -0.187500 -0.373047 -0.229492 -0.130859 0.437500 -0.016724 -0.027344 0.198242 -0.051270 -0.073730 0.014709 -0.131836 0.178711 -0.145508 -0.024170 0.046143 -0.132812 0.275391 0.199219 0.229492 0.059082 -0.351562 0.147461 0.141602 0.190430 -0.060059 0.214844 -0.208984 -0.125977 0.300781 -0.107422 -0.373047 -0.060303 -0.202148 -0.318359 -0.044434 0.079590 -0.059570 0.084473 0.083008 0.004456 -0.069336 -0.167969 -0.210938 -0.211914 -0.006866 0.161133 -0.189453 0.141602 0.053467 -0.010437 -0.079590 0.306641 -0.302734 -0.001366 -0.092285 0.004272 -0.154297 -0.056641 0.035400 0.047607 -0.000033 -0.195312 0.015869 0.006866 0.081055 0.057617 0.058350 -0.016846 -0.000332 -0.086426 0.109375 0.251953 -0.111816 0.349609 0.014709 -0.193359 -0.326172 0.127930 -0.094727 -0.129883 -0.010254 -0.017578 0.020874 0.012939 0.045898 0.004761 0.210938 -0.219727 -0.562500 -0.100586 -0.121582 -0.210938 -0.040527 0.078125 -0.028442 -0.249023 -0.273438 0.105957 0.059082 0.182617 -0.060059 0.003998 -0.081055 0.122559 0.005280 -0.183594 0.314453 0.008118 0.147461 0.032959 0.031006 0.040283 -0.114746 0.221680 0.145508 -0.106445 0.041504 -0.009766 0.373047 -0.279297 0.129883 -0.014893 0.306641 -0.011963 0.220703 0.113770 -0.023071 -0.025391 -0.279297 0.243164 -0.146484 0.194336 -0.096680 0.096191 -0.109375 0.173828 -0.314453 0.234375 -0.224609 0.073730 -0.172852 0.001228 0.269531 0.230469 -0.152344 -0.022705 -0.292969 -0.048340 -0.044678 0.271484 -0.122070 0.048584 0.267578 -0.125977 -0.060059 0.168945 0.052246 0.112305 0.082520 -0.061279 0.009338 0.087891 0.114746 -0.020874 -0.139648 -0.024170 0.335938 0.044189 -0.115234 0.226562 -0.249023 0.139648 0.216797 0.006714 0.248047 0.531250 -0.022339 0.172852
cat 0.012329 0.204102 -0.285156 0.216797 0.118164 0.083008 0.049805 -0.009521 0.220703 -0.125977 0.080566 -0.585938 -0.004456 -0.296875 -0.013123 -0.083496 0.050537 0.151367 -0.449219 -0.013550 0.214844 -0.147461 0.224609 -0.125000 -0.097168 0.249023 -0.289062 0.365234 0.412109 -0.085938 -0.078613 -0.197266 -0.090820 -0.141602 -0.102539 0.130859 -0.003464 0.072266 0.044189 0.345703 0.074707 -0.112305 0.067383 0.112305 0.019775 -0.123535 0.209961 -0.072266 -0.027832 0.055420 -0.333984 0.085449 0.343750 0.139648 0.049316 -0.134766 0.163086 -0.373047 0.396484 0.106934 0.221680 0.212891 -0.089844 0.207031 0.089355 -0.082520 0.059570 0.102051 -0.192383 -0.090820 0.492188 0.039551 -0.070801 -0.001999 -0.230469 0.255859 0.089844 -0.106445 0.001053 -0.058838 0.051025 -0.029175 0.193359 -0.141602 -0.333984 0.081543 -0.275391 0.100586 -0.104492 -0.123535 -0.140625 0.034912 -0.117676 -0.179688 -0.214844 -0.238281 0.084473 -0.075195 -0.259766 -0.212891 -0.223633 -0.097168 0.115723 0.154297 0.073730 -0.275391 0.142578 -0.020142 0.100098 -0.190430 -0.093750 0.141602 0.170898 0.312500 -0.166992 -0.086914 -0.050049 -0.249023 -0.208008 -0.094238 -0.122559 -0.094727 -0.390625 -0.066406 -0.316406 0.109863 -0.001564 0.043457 0.156250 -0.189453 -0.034912 0.033936 -0.144531 0.016113 -0.141602 -0.023926 0.015015 0.075684 0.107422 0.126953 0.106934 -0.011841 -0.240234 0.029175 0.162109 0.199219 -0.281250 0.166992 -0.116211 -0.255859 0.386719 -0.066406 -0.460938 -0.061768 -0.144531 -0.116211 0.056885 0.035889 -0.106934 0.188477 -0.166992 -0.017944 0.109863 -0.123535 -0.163086 -0.144531 0.128906 0.115234 0.136719 0.056885 -0.081055 -0.061523 -0.066895 0.279297 -0.196289 0.072266 0.123047 -0.209961 -0.220703 0.213867 -0.148438 -0.059326 0.052246 0.064453 -0.026367 0.131836 0.194336 0.271484 0.186523 0.140625 0.065430 -0.144531 0.050293 0.088379 0.122559 0.267578 0.053467 -0.322266 -0.207031 0.181641 0.044189 -0.221680 -0.137695 -0.041748 -0.002869 0.040771 0.072754 -0.083008 0.083984 -0.335938 -0.400391 0.017578 -0.186523 -0.048096 -0.191406 0.101074 0.092773 -0.306641 -0.199219 -0.016846 0.122070 0.146484 -0.128906 -0.235352 -0.053711 -0.066406 0.068848 -0.036377 0.210938 -0.060059 0.193359 0.051514 -0.053223 0.028931 -0.275391 0.084473 0.328125 0.018188 0.014954 0.047119 0.376953 -0.218750 -0.033936 0.011169 0.369141 0.021606 0.034668 0.072754 0.160156 -0.165039 -0.296875 0.150391 -0.291016 0.139648 0.004486 0.171875 -0.219727 0.093262 -0.190430 0.015991 -0.092285 0.157227 -0.141602 -0.053467 0.036133 0.236328 -0.151367 -0.006897 -0.271484 -0.071289 -0.165039 0.184570 -0.083984 0.185547 0.116699 0.027588 -0.047607 0.178711 0.065430 -0.035400 0.229492 0.026978 -0.097656 0.269531 0.083496 -0.130859 -0.101074 -0.007385 0.071289 0.149414 -0.206055 0.180664 -0.158203 0.059326 0.287109 -0.046631 0.151367 0.492188 -0.275391 0.056152
dog 0.051270 -0.022339 -0.172852 0.161133 -0.084473 0.057373 0.058594 -0.082520 -0.015381 -0.063477 0.179688 -0.423828 -0.022583 -0.166016 -0.025146 0.107422 -0.199219 0.159180 -0.187500 -0.120117 0.155273 -0.099121 0.142578 -0.164062 -0.089355 0.200195 -0.149414 0.320312 0.328125 0.024414 -0.097168 -0.082031 -0.036377 -0.085938 -0.098633 0.007782 -0.013428 0.052734 0.148438 0.333984 0.016602 -0.212891 -0.015076 0.052490 -0.107422 -0.088867 0.249023 -0.070312 -0.015991 0.075684 -0.070312 0.119141 0.229492 0.014160 0.115234 0.007507 0.275391 -0.244141 0.296875 0.034912 0.242188 0.135742 0.142578 0.017578 0.029297 -0.121582 0.022827 -0.047607 -0.155273 0.003143 0.345703 0.122559 -0.195312 0.081055 -0.068359 -0.014709 0.214844 -0.121094 0.157227 -0.207031 0.136719 -0.129883 0.052979 -0.271484 -0.298828 -0.184570 -0.229492 0.119141 0.015320 -0.261719 -0.123047 -0.018677 -0.064941 -0.081543 0.078613 -0.353516 0.052490 -0.024536 -0.005432 -0.208984 -0.210938 -0.179688 0.242188 0.257812 0.137695 -0.210938 -0.021729 -0.138672 0.018433 -0.012390 -0.159180 0.161133 0.208008 0.103027 0.098145 -0.068359 -0.008728 -0.289062 -0.214844 -0.114258 -0.221680 0.041260 -0.312500 -0.055908 -0.097656 0.058105 -0.040527 -0.173828 0.164062 -0.253906 -0.154297 -0.023193 -0.238281 0.020752 -0.273438 0.003906 0.113770 -0.173828 0.257812 0.235352 0.052246 0.068359 -0.175781 0.160156 -0.000599 0.059814 -0.211914 -0.055420 -0.075195 -0.306641 0.427734 0.053223 -0.208984 -0.057129 -0.209961 0.032959 0.105469 -0.150391 -0.093750 0.116699 0.064453 0.028076 0.241211 -0.125977 -0.100586 -0.012268 -0.000326 0.015869 0.127930 -0.033203 0.040771 -0.131836 0.098145 0.174805 -0.236328 0.051758 0.183594 0.024292 -0.431641 0.246094 -0.030396 -0.024780 -0.117188 0.161133 -0.057129 0.011658 0.281250 0.427734 0.045654 0.101074 -0.039551 0.017700 -0.089844 0.135742 0.208008 0.188477 -0.152344 -0.237305 -0.190430 0.071289 -0.246094 -0.261719 -0.234375 -0.145508 -0.011719 -0.150391 -0.113281 0.182617 0.263672 -0.137695 -0.458984 -0.046875 -0.126953 -0.042236 -0.166992 0.126953 0.259766 -0.244141 -0.219727 -0.086914 0.159180 -0.037842 0.008972 -0.277344 -0.104980 -0.175781 0.228516 -0.027100 0.285156 -0.273438 0.016113 0.059082 -0.239258 0.177734 -0.134766 0.138672 0.353516 0.122070 0.143555 0.092285 0.229492 -0.300781 -0.048828 -0.179688 0.296875 0.175781 0.048096 -0.003387 0.079102 -0.238281 -0.231445 0.166016 -0.213867 -0.070312 -0.075684 0.196289 -0.129883 -0.105957 -0.353516 -0.116699 -0.051025 0.033936 -0.143555 -0.003906 0.173828 -0.099609 -0.166016 -0.085449 -0.382812 0.059082 -0.062256 0.088379 -0.088867 0.328125 0.068359 -0.191406 -0.000835 0.104004 0.152344 -0.001534 0.416016 -0.033203 0.149414 0.242188 -0.176758 -0.049316 -0.124512 0.125977 0.174805 0.281250 -0.180664 0.103027 -0.275391 0.261719 0.246094 -0.047119 0.062500 0.416016 -0.355469 0.222656
tiger -0.068359 0.182617 -0.177734 0.166016 0.146484 0.025391 0.050049 -0.035156 0.253906 0.002228 -0.000326 -0.205078 -0.298828 -0.371094 -0.445312 -0.208008 -0.189453 -0.000572 -0.245117 -0.208984 0.251953 -0.373047 0.191406 -0.020752 -0.296875 0.124023 -0.460938 0.142578 0.714844 0.118652 -0.147461 -0.115234 -0.090332 -0.084961 -0.314453 0.154297 -0.197266 0.289062 0.326172 0.279297 -0.021362 -0.077637 0.129883 0.179688 0.285156 -0.245117 -0.072266 -0.108398 0.396484 0.275391 -0.294922 0.287109 -0.009338 -0.214844 0.103516 -0.132812 0.190430 -0.253906 0.382812 0.035889 0.100586 0.104492 0.165039 -0.219727 0.137695 -0.188477 0.070312 -0.089844 -0.216797 -0.007538 -0.086914 0.059570 0.070312 -0.058838 -0.046631 -0.036377 0.115234 -0.339844 -0.008728 -0.001930 -0.018799 -0.190430 0.164062 0.253906 -0.349609 -0.104004 -0.073242 -0.209961 -0.078613 -0.117676 -0.041504 0.433594 -0.065430 0.058838 -0.298828 -0.425781 0.184570 0.120605 0.180664 -0.253906 -0.076660 -0.154297 -0.025757 -0.166016 0.227539 -0.294922 -0.096680 -0.121582 0.114746 -0.135742 -0.519531 0.083984 0.029541 0.289062 -0.196289 -0.086426 -0.144531 -0.486328 -0.275391 -0.029297 -0.019409 0.194336 -0.365234 -0.012756 -0.143555 0.062500 0.382812 -0.084473 0.150391 -0.371094 -0.142578 0.121582 -0.324219 0.149414 -0.226562 0.187500 0.091797 0.023804 0.090820 0.059326 0.187500 -0.308594 -0.074219 0.066406 0.048096 0.304688 -0.174805 0.283203 0.015076 -0.104492 0.464844 0.153320 -0.275391 0.204102 0.191406 -0.250000 0.012085 -0.035400 0.146484 -0.180664 0.125000 -0.206055 0.211914 -0.059326 0.008667 -0.081543 0.269531 -0.251953 -0.027222 0.125000 -0.092773 -0.071777 0.044434 0.129883 0.070312 -0.083496 0.037109 0.094727 -0.200195 -0.326172 -0.275391 -0.238281 -0.122559 -0.131836 0.056885 -0.233398 0.010437 0.186523 0.233398 0.054688 -0.067383 -0.435547 -0.259766 0.179688 0.107910 0.041504 0.019531 -0.261719 -0.146484 0.059814 0.127930 -0.146484 0.004486 -0.148438 0.114258 0.002335 0.353516 -0.227539 0.112793 -0.041016 -0.531250 -0.072754 0.137695 -0.617188 -0.121582 0.294922 0.380859 -0.038818 0.060059 0.235352 0.132812 0.028564 -0.263672 -0.138672 0.161133 -0.107422 -0.105469 0.117676 0.308594 -0.036621 0.085938 -0.149414 0.163086 0.001900 -0.130859 -0.134766 -0.057373 0.073730 -0.110840 -0.123047 0.269531 -0.283203 -0.084473 -0.242188 0.153320 0.009888 0.031982 -0.208008 0.300781 -0.018555 -0.271484 0.193359 -0.098633 0.125000 -0.016479 0.062500 0.008484 -0.180664 -0.213867 -0.166016 -0.277344 0.138672 0.562500 0.037598 0.219727 0.213867 -0.486328 -0.098633 -0.031250 -0.198242 0.003036 0.044434 0.040283 0.351562 0.250000 0.100098 0.001938 0.053711 -0.204102 0.005096 0.263672 -0.088867 -0.205078 -0.107422 0.127930 -0.090820 -0.106445 0.013489 0.312500 -0.023193 -0.105469 -0.050537 0.146484 -0.026245 0.090332 0.039551 0.029419 0.190430 -0.102051 0.172852
bird 0.084473 0.125000 -0.337891 0.029541 -0.016235 -0.077637 0.071289 0.104980 0.177734 -0.022339 0.076172 -0.601562 -0.047119 -0.328125 0.012512 -0.137695 -0.137695 -0.022949 -0.035400 -0.165039 -0.051270 -0.214844 -0.007446 0.077148 -0.244141 -0.056152 -0.134766 0.101074 0.357422 0.121094 -0.261719 0.104004 -0.193359 -0.332031 0.007385 0.005737 0.027954 -0.065918 0.199219 0.460938 0.047852 -0.071289 0.159180 0.122070 -0.014404 -0.550781 0.165039 -0.097168 0.445312 0.250000 -0.175781 -0.056396 0.345703 0.047363 0.076172 0.039795 0.105469 -0.208984 0.310547 0.158203 0.075195 -0.199219 0.036865 -0.221680 0.019897 -0.359375 -0.032471 -0.149414 -0.119141 -0.009155 0.332031 -0.125000 -0.001472 -0.042480 -0.159180 0.206055 -0.208984 -0.179688 -0.007721 -0.090332 -0.126953 -0.045410 0.324219 -0.574219 0.130859 0.152344 -0.229492 -0.042480 0.161133 -0.302734 0.001129 0.239258 -0.328125 -0.257812 -0.165039 -0.210938 0.012939 -0.267578 -0.052734 -0.314453 0.067871 -0.154297 -0.055420 -0.008301 0.081055 -0.054932 0.180664 0.199219 0.014343 -0.142578 -0.451172 -0.036133 -0.076172 0.167969 -0.036133 0.095215 -0.099121 -0.144531 -0.217773 -0.137695 -0.137695 0.104492 -0.207031 -0.052246 -0.126953 0.247070 0.153320 -0.122559 0.007812 0.237305 -0.092773 -0.097168 -0.087402 -0.023193 0.033203 -0.181641 -0.153320 -0.002991 0.206055 0.318359 0.063477 0.069824 -0.054199 0.419922 0.163086 0.104492 -0.051758 0.003891 -0.218750 -0.253906 0.285156 0.036377 -0.380859 0.023804 0.116699 -0.191406 0.196289 -0.188477 -0.175781 -0.025879 -0.050781 -0.088867 0.155273 -0.078125 -0.102539 0.124023 0.082031 0.233398 0.180664 0.062500 -0.128906 0.053711 -0.012878 0.005249 -0.133789 -0.166992 0.074219 -0.105957 -0.021973 0.019287 -0.259766 -0.361328 0.041504 -0.171875 -0.052979 0.223633 -0.088379 0.071777 -0.133789 0.279297 -0.355469 -0.075195 -0.275391 -0.098145 -0.151367 0.339844 0.117188 -0.128906 -0.259766 0.127930 0.088867 -0.168945 -0.275391 -0.204102 -0.085938 0.129883 0.057861 -0.040527 0.009766 -0.043457 -0.394531 -0.054443 -0.095703 -0.181641 -0.208008 0.306641 0.447266 -0.049561 0.055664 0.022827 0.237305 -0.201172 -0.064941 -0.000437 0.111328 -0.144531 0.030396 0.182617 0.164062 0.001228 0.134766 -0.369141 -0.085938 -0.225586 0.034668 -0.217773 0.156250 -0.025513 0.292969 -0.015747 0.281250 -0.296875 -0.102051 -0.382812 0.166992 -0.078613 0.150391 -0.183594 0.047363 0.041260 -0.261719 -0.014282 -0.143555 -0.289062 0.124023 0.164062 -0.203125 0.231445 -0.082031 0.046387 -0.213867 0.105469 -0.021973 -0.204102 -0.086426 -0.018433 -0.039795 0.061768 -0.112305 0.131836 -0.083496 0.166992 -0.134766 -0.046143 0.121582 -0.222656 0.106445 0.070801 -0.127930 0.229492 0.113770 0.318359 0.117188 0.037109 0.105469 -0.206055 0.007599 0.153320 0.011963 0.269531 -0.124023 0.064941 -0.024292 -0.068359 0.000076 0.047363 0.152344 0.082520 0.127930 0.106445
animal 0.008118 0.205078 -0.169922 0.118164 -0.115723 0.029907 0.176758 -0.038330 -0.150391 -0.082520 0.081055 -0.480469 -0.126953 -0.210938 -0.310547 -0.136719 -0.240234 0.211914 -0.105957 -0.039307 0.130859 -0.170898 0.151367 -0.035156 -0.172852 0.018188 -0.201172 0.225586 0.337891 -0.181641 -0.184570 -0.105469 -0.230469 -0.164062 -0.304688 0.156250 -0.025879 0.064941 0.072754 0.326172 0.049561 0.102539 -0.228516 0.304688 -0.378906 -0.257812 0.255859 0.361328 0.115234 0.125977 -0.015320 -0.135742 0.109863 0.045166 0.001465 0.026367 0.214844 -0.131836 0.328125 0.316406 0.128906 0.065918 0.036377 -0.164062 -0.053467 -0.439453 0.187500 0.231445 -0.220703 -0.066895 0.088379 0.018433 -0.125000 -0.073242 -0.011414 -0.075684 0.051025 -0.153320 0.223633 -0.251953 0.036377 -0.016846 0.127930 -0.296875 -0.052246 0.005890 -0.244141 0.225586 -0.222656 -0.114746 0.029785 0.180664 -0.039062 -0.097656 -0.054688 -0.199219 0.076660 -0.011780 0.050293 -0.255859 0.050049 0.033203 0.051758 0.092285 0.279297 -0.123047 -0.016113 -0.170898 0.048096 0.001205 -0.291016 -0.006042 0.130859 0.164062 -0.140625 -0.071289 -0.214844 -0.182617 0.080566 -0.092285 0.005768 -0.267578 -0.390625 0.024048 -0.063477 0.001266 0.172852 -0.132812 0.208008 -0.072266 -0.226562 -0.135742 -0.345703 0.243164 -0.100098 -0.090332 0.102539 0.006165 0.066406 -0.025146 0.087402 0.002045 -0.169922 0.208008 0.103027 0.104492 0.030884 0.139648 -0.162109 -0.148438 0.347656 0.060791 -0.427734 0.003357 0.071289 -0.087402 0.020630 -0.229492 0.170898 0.060059 -0.132812 -0.026245 0.104980 0.148438 -0.023560 -0.078613 -0.234375 -0.070801 -0.012390 -0.065430 0.086914 -0.109863 -0.001579 0.199219 -0.093750 -0.101562 -0.065430 0.040527 -0.277344 -0.072266 -0.347656 -0.029297 0.043945 0.108398 0.088379 -0.043213 0.003647 0.197266 0.024780 0.277344 -0.158203 -0.095215 -0.113281 -0.041016 0.040771 -0.009216 0.061768 -0.255859 -0.137695 0.093750 0.155273 -0.291016 -0.160156 0.000330 -0.183594 -0.028442 0.037842 0.046387 0.259766 -0.244141 -0.531250 -0.020996 0.035400 -0.199219 -0.069336 0.074707 0.322266 -0.158203 0.166016 -0.035645 0.193359 -0.073242 -0.012634 -0.192383 0.200195 -0.123535 0.239258 0.027100 0.320312 0.106934 0.339844 0.147461 -0.163086 0.152344 -0.269531 -0.040527 0.373047 0.066406 0.063965 -0.092285 0.412109 -0.241211 0.036621 -0.196289 0.044678 0.023193 0.053711 -0.019897 -0.107910 -0.131836 -0.261719 0.190430 -0.302734 -0.208984 0.065430 0.044922 -0.091797 0.032471 -0.324219 0.038330 -0.308594 -0.037354 0.045410 0.011475 0.170898 -0.085449 -0.087891 -0.017334 -0.221680 -0.010254 0.032471 0.000452 -0.145508 0.096191 0.098145 -0.177734 -0.068359 0.008728 0.061035 0.159180 0.146484 -0.149414 0.204102 -0.047119 -0.221680 0.041016 -0.062988 -0.017822 0.447266 0.382812 -0.271484 0.117676 -0.219727 0.285156 -0.011292 0.241211 0.126953 0.369141 -0.109863 0.187500
vehicle 0.337891 -0.052490 0.084961 -0.188477 -0.056885 -0.143555 0.163086 -0.172852 0.263672 -0.124023 0.166992 -0.138672 -0.013550 -0.017700 0.039307 -0.057129 -0.158203 -0.115723 0.158203 -0.096680 0.126953 -0.302734 -0.242188 0.046387 0.114746 -0.035156 -0.040039 0.326172 0.324219 -0.072754 -0.196289 -0.259766 -0.033936 0.066895 -0.104004 -0.119141 0.151367 -0.052490 -0.166016 -0.044189 -0.031982 0.111816 -0.073242 0.244141 -0.322266 0.011414 0.018921 0.164062 0.265625 0.086426 -0.310547 0.166992 0.169922 0.151367 -0.133789 0.079102 0.070801 0.215820 0.132812 -0.104004 0.081055 -0.045166 -0.355469 -0.056396 -0.133789 0.275391 -0.028442 -0.049072 -0.035889 -0.031250 0.011230 -0.159180 -0.166016 0.064453 -0.058350 0.050049 -0.099609 -0.087891 -0.002930 -0.133789 0.375000 0.000633 -0.151367 0.223633 -0.027588 -0.175781 -0.220703 0.111816 -0.201172 -0.031738 -0.090332 -0.107910 0.189453 -0.165039 0.056641 -0.175781 0.007599 -0.106934 0.296875 -0.136719 0.065918 -0.134766 0.112793 0.149414 0.233398 -0.212891 -0.025513 -0.153320 0.115234 0.020874 -0.221680 -0.212891 -0.144531 -0.155273 0.245117 -0.109375 0.033936 -0.046143 -0.237305 0.114258 0.165039 0.099121 -0.019653 0.031982 0.025391 0.164062 -0.029053 0.032715 0.076660 0.312500 0.022217 -0.081055 -0.208984 -0.127930 0.186523 -0.028687 0.164062 -0.410156 -0.061035 0.224609 -0.194336 -0.043457 -0.235352 0.196289 -0.100586 0.025146 -0.020386 -0.124512 -0.093750 -0.134766 0.253906 -0.106934 0.104980 -0.005676 -0.066406 0.022827 -0.122559 0.046387 -0.119141 0.002258 -0.064453 0.363281 0.176758 -0.158203 -0.058350 -0.201172 0.138672 -0.114258 0.110840 -0.175781 -0.023315 -0.062988 -0.003555 -0.082031 -0.101074 -0.225586 0.105957 -0.185547 -0.535156 0.087891 -0.232422 -0.091797 -0.194336 -0.005432 0.028809 -0.124512 -0.047852 0.335938 -0.312500 0.110840 0.044922 -0.129883 -0.221680 0.152344 0.067871 0.134766 -0.080566 -0.026855 0.109863 0.006989 0.057373 -0.214844 -0.143555 -0.052734 -0.094238 -0.161133 -0.027954 0.294922 0.192383 0.079102 0.263672 0.066406 -0.229492 0.091309 -0.294922 0.106445 -0.045166 0.238281 -0.154297 -0.032959 -0.204102 -0.271484 0.283203 -0.066406 0.039795 0.056152 0.084473 0.192383 0.103027 -0.044434 0.097168 0.030273 -0.200195 -0.151367 -0.134766 -0.099609 -0.192383 -0.045654 -0.007080 -0.101074 0.251953 -0.082031 -0.133789 -0.318359 -0.148438 -0.094727 0.173828 -0.120605 0.172852 -0.124023 0.099609 0.067383 -0.144531 -0.033447 -0.104980 0.007751 -0.033447 0.017334 0.122070 -0.359375 0.072754 -0.400391 -0.016113 -0.053467 0.195312 0.277344 -0.255859 -0.031982 -0.375000 0.064941 -0.085449 -0.213867 0.006714 0.292969 -0.097168 -0.090332 0.038574 -0.184570 -0.076172 0.117188 -0.074219 0.096680 0.109863 -0.304688 0.006744 0.051514 0.125000 0.047852 0.139648 0.107910 -0.400391 0.148438 -0.012939 0.042480 -0.022583 0.009277 -0.008911 0.227539 -0.038086 -0.176758
International_Airport 0.144531 0.210938 0.175781 -0.168945 0.165039 -0.349609 -0.242188 0.100586 0.135742 -0.180664 0.269531 -0.054199 0.250000 -0.176758 -0.131836 -0.026123 0.190430 0.171875 0.115234 0.065918 -0.259766 -0.187500 0.045410 -0.225586 0.112305 -0.028687 0.075684 -0.055908 0.177734 0.103027 -0.021240 -0.570312 -0.261719 0.118652 -0.004425 0.106445 -0.353516 0.427734 -0.080078 0.203125 -0.135742 0.077148 0.271484 -0.049072 -0.251953 -0.255859 -0.059326 0.145508 0.347656 0.125977 0.029175 0.059570 0.193359 0.159180 -0.064941 -0.094727 -0.294922 0.102539 -0.094727 0.230469 -0.088867 -0.149414 0.083008 0.090820 0.248047 0.051270 -0.380859 0.046143 0.184570 -0.068848 -0.247070 0.404297 -0.208984 0.151367 -0.417969 -0.216797 -0.066895 -0.035645 0.211914 -0.010742 -0.065430 0.101074 -0.036865 -0.018311 -0.215820 -0.136719 0.183594 0.238281 0.085938 0.084961 -0.165039 -0.296875 -0.353516 0.161133 0.291016 -0.233398 0.269531 -0.296875 0.250000 -0.166992 0.114746 0.271484 -0.001450 0.076660 0.566406 -0.190430 0.433594 0.093750 0.500000 -0.306641 -0.195312 -0.169922 -0.147461 -0.292969 -0.492188 0.281250 0.155273 0.008362 0.195312 -0.010498 -0.133789 0.070801 -0.007996 -0.429688 -0.032715 -0.020142 -0.027954 -0.170898 0.566406 0.047119 0.157227 -0.113281 0.206055 -0.200195 0.155273 -0.578125 0.136719 -0.221680 -0.221680 0.519531 -0.237305 0.079102 -0.041748 0.020386 0.222656 0.085938 -0.212891 -0.265625 0.130859 -0.314453 0.101074 0.106934 0.255859 0.125000 -0.285156 -0.296875 0.182617 -0.269531 0.175781 0.021851 -0.535156 0.251953 0.002075 0.068848 -0.511719 0.240234 0.080078 -0.167969 0.036133 -0.208008 0.095703 0.251953 0.043457 0.170898 -0.053467 0.291016 -0.031738 -0.404297 0.068359 -0.028076 -0.050293 -0.038086 0.083984 -0.166992 -0.261719 -0.015442 -0.008728 0.117188 0.060059 0.148438 -0.003159 0.279297 -0.081055 -0.384766 -0.316406 0.710938 -0.312500 -0.015137 -0.166992 -0.457031 0.044678 0.231445 0.057861 -0.169922 0.332031 0.173828 0.298828 0.339844 0.149414 -0.244141 0.077148 -0.030762 0.024780 0.281250 -0.192383 0.326172 0.154297 0.546875 -0.029541 0.416016 -0.212891 0.120605 -0.199219 0.160156 0.255859 0.000954 -0.679688 0.245117 -0.180664 0.075684 0.177734 0.365234 -0.777344 -0.085938 0.116211 0.067383 0.251953 0.078125 0.554688 -0.112793 -0.326172 0.036377 -0.119629 -0.173828 -0.201172 -0.129883 0.133789 -0.076172 -0.141602 0.412109 0.314453 0.001328 -0.135742 -0.034424 0.035156 -0.026733 0.144531 0.217773 -0.259766 0.010925 0.093262 0.198242 -0.200195 0.025269 0.242188 -0.064453 0.083008 -0.363281 -0.196289 0.235352 -0.062012 -0.043701 0.002686 -0.206055 0.253906 -0.137695 0.008362 0.092285 -0.080078 -0.130859 0.038818 0.294922 0.149414 -0.019653 0.302734 0.145508 -0.421875 -0.080566 -0.056152 0.382812 0.080078 -0.247070 0.057617 0.230469 0.199219 -0.177734 -0.412109 0.265625 0.087402 -0.185547
